<?xml version="1.0"?>
<opencv_storage>
<cascade>
  <stageType>BOOST</stageType>
  <featureType>HAAR</featureType>
  <height>24</height>
  <width>36</width>
  <stageParams>
    <boostType>GAB</boostType>
    <minHitRate>9.9500000476837158e-01</minHitRate>
    <maxFalseAlarm>5.0000000000000000e-01</maxFalseAlarm>
    <weightTrimRate>9.4999998807907104e-01</weightTrimRate>
    <maxDepth>1</maxDepth>
    <maxWeakCount>100</maxWeakCount></stageParams>
  <featureParams>
    <maxCatCount>0</maxCatCount>
    <featSize>1</featSize>
    <mode>BASIC</mode></featureParams>
  <stageNum>3</stageNum>
  <stages>
    <!-- stage 0 -->
    <_>
      <maxWeakCount>1</maxWeakCount>
      <stageThreshold>1.</stageThreshold>
      <weakClassifiers>
        <_>
          <internalNodes>
            0 -1 0 1.9947285950183868e-01</internalNodes>
          <leafValues>
            -1. 1.</leafValues></_></weakClassifiers></_>
    <!-- stage 1 -->
    <_>
      <maxWeakCount>1</maxWeakCount>
      <stageThreshold>9.7938144207000732e-01</stageThreshold>
      <weakClassifiers>
        <_>
          <internalNodes>
            0 -1 4 9.0914964675903320e-02</internalNodes>
          <leafValues>
            -1. 9.7938144207000732e-01</leafValues></_></weakClassifiers></_>
    <!-- stage 2 -->
    <_>
      <maxWeakCount>3</maxWeakCount>
      <stageThreshold>-1.0159481763839722e+00</stageThreshold>
      <weakClassifiers>
        <_>
          <internalNodes>
            0 -1 3 9.9406987428665161e-03</internalNodes>
          <leafValues>
            -9.7448164224624634e-01 9.6491229534149170e-01</leafValues></_>
        <_>
          <internalNodes>
            0 -1 2 1.4410755038261414e-01</internalNodes>
          <leafValues>
            -9.4187664985656738e-01 9.0495532751083374e-01</leafValues></_>
        <_>
          <internalNodes>
            0 -1 1 1.3030892610549927e-01</internalNodes>
          <leafValues>
            -9.0041476488113403e-01 9.0041017532348633e-01</leafValues></_></weakClassifiers></_></stages>
  <features>
    <_>
      <rects>
        <_>
          0 0 33 10 -1.</_>
        <_>
          0 5 33 5 2.</_></rects>
      <tilted>0</tilted></_>
    <_>
      <rects>
        <_>
          1 3 14 18 -1.</_>
        <_>
          8 3 7 18 2.</_></rects>
      <tilted>0</tilted></_>
    <_>
      <rects>
        <_>
          18 5 18 14 -1.</_>
        <_>
          24 5 6 14 3.</_></rects>
      <tilted>0</tilted></_>
    <_>
      <rects>
        <_>
          20 5 12 2 -1.</_>
        <_>
          24 5 4 2 3.</_></rects>
      <tilted>0</tilted></_>
    <_>
      <rects>
        <_>
          25 2 5 21 -1.</_>
        <_>
          25 9 5 7 3.</_></rects>
      <tilted>0</tilted></_></features></cascade>
</opencv_storage>
